{"g_idf": null, "t_idf": null, "b": 1.0677526201312695, "W": [-1.7099066660499587, 0.29634922807133846, -0.279545759478183, -1.117564292991102, -0.5244294523611533, 0.040366427669533994, 0.1540644046362371, -0.026875303347802065, -0.6738789870729915, 0.001986267538933017, -0.00882013676574246, 1.8243887967894077, -0.13361182810415145, -0.0047329899198113035, 0.06037951174073943, -0.39119175018524904, 0.09894244060636806, -0.19243391875937882, 0.12429348942638398, -0.14049834509085574, 0.22857510618029733, 0.05677208297107231, 0.03624274554749646, 0.07101099361075493, -0.7034982027301799, -0.310802799158146, -0.2626903372214376, 0.018243950420485825, -0.7206782221664079, 0.027309550870997328, -0.6090720751074118, -0.20464731036832612, 0.3337316767734829, 0.18062423592560958, -0.30056841652054694, -1.075905477933733, 0.10055003015636026, 0.2940441223801448, -0.19235535834656742, 0.3816316304167955, 0.11989484724310887, 0.25524347824136845, -0.0810523435782475, -0.1574893253083049, 0.38002640940284893, 0.3570929147076566, 0.08629788566876628, 0.27302312064770273, -0.47005701067823225, 0.04763227815702333, 0.25204100574911426, 0.1558381913436562, -0.07357658414039434, -0.1490810467840191, 0.09252726620809028, 0.11775414051396173, 0.055561050497692846, 0.2267133113328859, -0.07132003971152817, -0.5072058910604192, -0.034143065472057095, 0.22171423569029997, -0.32279199900144473, 0.0727103248453085, -0.14531104445626758, -0.5151645366393124, -0.6774489447081334, -0.11443825857952723, -0.15205555534440007, -0.6104103975983343, 0.1735949070965508, 0.07960485332315397, 1.6147975816662847, -0.21213574879353456, 0.17445484108592105, 0.1425221273189359, 0.0703213588567022, 0.2964143420909043, -0.16420549058712178, -0.2111347346899678, -0.1271038397236558, 0.23348048340524447, -0.7258969450916343, 0.2280714139421305, -0.006262075547050517, -0.10829644298330159, 0.24207142403327606, -0.16930650360154303, -0.1301942241506772, -0.0991663387563268, -0.41541890896534256, 0.7823877795178078, 0.18544173845097736, -0.5225455065199557, -0.014762224797583226, -0.045471798676562016, -0.0304246198739956, -0.15823522934087814, 0.11411454328249118, -0.2153442210761589, -0.02109144544042762, 0.1498656253958547, 0.19135141165861783, 0.044474327898551644, 0.10990732737366939, 0.1462380390609256, 0.0920647343044175, -0.26350238684482263, -0.32631230059415706, -0.23374421994438546, -0.046932157904528135, -0.13214347149906075, 0.5467752175382398, 0.25757488048828664, -0.1912746907208797, 0.6055075504308131, 0.12382870434584149, -0.3165279941819461, -0.21967842761263265, 0.04951687554799627, -0.2888885163445821, 0.1307827458521475, 0.10508257665113971, 0.027219180172856645, -0.11997761689284835, 0.22671811110506662, 0.036950785337983655, -0.05312096442178969, -0.1343859016439681, -0.01995408489743437, 0.6981308693441172, 0.44434174843700136, -0.22005097351643713, 0.06799918333728625, -0.07744172146238644, -0.5804156115372591, -0.037599746433877174, -0.10459111302714674, -0.22274198256068567, 0.41504470493449, -0.22081595335981324, -0.10559983953400767, 0.0625248104546773, -0.6291272890980056, -0.260513261540748, -0.1637038275296584, 0.2592735637736061, -0.355199936716357, -0.036738341768944346, 0.14165408636577217, 0.20431648853017276, -0.3236715225821863, -0.10895118445490629, -0.23344541159663354, -0.0556365058397825, 0.19742610487815287, -0.03794557299021101, 0.1948286697924973, 0.042865419031435134, 0.22202114019679858, 0.24200367340192555, 0.0138593175163417, -0.08586005641506662, 0.27042922579503215, 0.19247906012317628, -0.13120045178123438, -0.4632630826122239, 0.0676223999114697, -0.04613573916409825, -0.38040049159170697, 0.18665706985874903, -0.5037283398226365, 0.3018992135076547, -0.07039921138902365, 0.06183377551887748, 0.1655461263976324, 0.29728947844986514, 0.16514937138745772, 0.11098547624231374, -0.46438135818661413, -0.10117970098204968, -0.13106078859530843, -0.26643071729288437, 1.156720823211262, -0.06849800120531911, 0.178233821529898, 0.035997068655472815, -0.3165996504774996, 0.10351537284319141, 0.030227284949858903, -0.33740729417441917, -0.4354922235053994, -0.14592842446373866, -0.13121597895905834, -0.041505027769219605, -0.1945598543522443, -0.314526003458623, -0.2649479735738279, -0.35702793051520887, 0.2702640306444061, 0.18433643637761954, -0.03788110923537492, 0.0727394593919911, 0.6413765186560494], "d_idf": [3.045560037918671, 3.8214878001894337, 2.776094422107371, 3.785070411835326, 3.5634923546170785, 4.075591859422843, 4.129113435718436, 2.7537069152473928, 3.0276447971531972, 3.8208052528965375, 2.984650027761444, 3.566852991861864, 2.5587128883373644, 3.6326103303891655, 3.4588305130899775, 2.593904092398875, 2.467062842602304, 3.6582371979678814, 2.6473029107893327, 2.145041048797858, 2.1786180171213223, 2.1403931724871605, 3.6558507002353946, 2.986876145291375, 2.2667311928738756, 3.9192754421096776, 2.772108215219216, 3.1778746080939757, 2.397788994234894, 4.254152758063582, 3.3405345058922653, 3.113700260533089, 2.9218139520524105, 3.693028651557, 2.582565516056376, 2.932467081210567, 3.702415899389772, 2.876514995465243, 4.2672885401609175, 3.7956334708573594, 3.6306225725121055, 4.3438043829077575, 2.8040173406157125, 3.9425227377898033, 2.0788128167404096, 3.797524862925931, 3.020300371159433, 4.531351837271781, 3.461589870483683, 3.5923266135291363, 3.510362884102725, 3.3503070680160043, 4.090849038719801, 3.317304425002998, 2.3291285422960444, 2.9638381336232493, 3.160548427869304, 4.195697213504853, 2.7839309466852944, 2.6693129562656024, 3.902906117880429, 2.7681854625476108, 1.6050281038345404, 2.9280871278656413, 2.84435237448461, 2.9240379296617984, 4.6503575707962685, 4.8296057770957095, 3.1845259427217973, 2.743237082379577, 2.8160658586451355, 3.4838652529550314, 4.066164274570793, 3.606984500117452, 3.2749771553078255, 2.9530650850772537, 2.4635656589473083, 3.2826437986803203, 2.0242583172088877, 3.027508983785249, 2.6441172553313774, 3.5565742401181337, 3.186029332859968, 1.6894884014622158, 4.242268281238424, 3.265597168372458, 2.311531530846291, 2.447967567372393, 2.1302301697889927, 3.4406766145375065, 3.125123078543153, 2.9440296006413256, 4.271134698748396, 2.888658364188002, 4.239567990874466, 3.9109079453607793, 2.9968237496729992, 3.0008547070836067, 4.386416049274409, 3.7618516900202836, 4.209812648701659, 1.9770419975623756, 4.276372110909316, 2.6474633045140608, 3.8830465602118225, 2.8539687767231445, 4.397577472612143, 3.051371992074567, 3.610627491395953, 3.9290508093516685, 4.883893398705379, 2.8151469337225556, 3.543417525158231, 3.4331099052613614, 3.409426080782696, 4.540166399224507, 3.1323908700967027, 2.439751126238061, 2.73063460839439, 3.51892316947162, 3.1498874956333838, 2.9362913927159386, 3.6446205741579436, 3.583655445251835, 3.684657199380843, 4.230770098476545, 3.834019912428151, 2.817315752566885, 2.930762108335096, 1.9783296663687153, 3.795660085359603, 2.851108285794881, 3.5972469404460483, 3.7559767901716365, 3.4000823215947884, 3.7772533634782044, 3.389175261176149, 3.682468285825439, 3.212740980522257, 2.7568571165031317, 4.320908005003205, 3.6570779925891927, 1.7098380693002757, 3.0388946829823973, 3.999606811286936, 4.035692858426135, 3.3183772359528345, 2.7427354940059105, 3.2967164468993455, 2.473717958734828, 3.8752637442983304, 2.2419559850366797, 2.993142925220116, 3.024291902142886, 1.2620325569206383, 2.306716276476289, 3.6760482123662075, 2.53208550574865, 2.8825842674712048, 2.817245717198995, 2.9576021155393715, 3.2501927585921098, 2.9285007783368964, 4.146084902351609, 3.4758499169411854, 2.4062698905098614, 3.7589740641297156, 3.284286345794422, 3.000638350527159, 2.4497880213272625, 3.812001326676673, 4.754162184828812, 2.8981917571287434, 3.298317546986663, 3.205132891722374, 2.7048318084923912, 3.611047840734561, 2.887305372904903, 3.302128434507335, 2.0529882455597974, 3.854810333496881, 3.1217123552486936, 3.6569621459237096, 3.533396143459963, 4.394569513814014, 3.105912069612728, 2.02487418394755, 2.70737426619705, 3.6726535039032893, 3.3914821900811414, 3.127671718717913, 3.393189190975731, 4.040339060805316, 3.2382329110408623, 2.8275838054309785, 3.057535926056752, 3.736572477917818, 3.567636649464794, 3.2188215667768842, 3.0877316752505704]}